digraph Tree {
node [shape=box, style="filled, rounded", color="black", fontname=helvetica] ;
edge [fontname=helvetica] ;
0 [label="Site EUI (kBtu/ft²) <= 15.95\nfriedman_mse = 1.0\nsamples = 6622\nvalue = 0.014", fillcolor="#e5813961"] ;
1 [label="Weather Normalized Site Electricity Intensity (kWh/ft²) <= 3.85\nfriedman_mse = 0.769\nsamples = 181\nvalue = 0.481", fillcolor="#e5813965"] ;
0 -> 1 [labeldistance=2.5, labelangle=45, headlabel="True"] ;
2 [label="Water Intensity (All Water Sources) (gal/ft²) <= 11.895\nfriedman_mse = 0.385\nsamples = 139\nvalue = 0.784", fillcolor="#e5813967"] ;
1 -> 2 ;
3 [label="Order <= 11902.5\nfriedman_mse = 0.97\nsamples = 29\nvalue = 0.172", fillcolor="#e5813962"] ;
2 -> 3 ;
4 [label="(...)", fillcolor="#C0C0C0"] ;
3 -> 4 ;
7 [label="(...)", fillcolor="#C0C0C0"] ;
3 -> 7 ;
8 [label="Order <= 14090.0\nfriedman_mse = 0.106\nsamples = 110\nvalue = 0.945", fillcolor="#e5813968"] ;
2 -> 8 ;
9 [label="(...)", fillcolor="#C0C0C0"] ;
8 -> 9 ;
12 [label="(...)", fillcolor="#C0C0C0"] ;
8 -> 12 ;
13 [label="DOF Gross Floor Area <= 60215.5\nfriedman_mse = 0.726\nsamples = 42\nvalue = -0.524", fillcolor="#e581395c"] ;
1 -> 13 ;
14 [label="friedman_mse = 0.556\nsamples = 6\nvalue = 0.005", fillcolor="#e5813961"] ;
13 -> 14 ;
15 [label="Year Built <= 1933.0\nfriedman_mse = 0.478\nsamples = 36\nvalue = -0.722", fillcolor="#e581395b"] ;
13 -> 15 ;
16 [label="(...)", fillcolor="#C0C0C0"] ;
15 -> 16 ;
17 [label="(...)", fillcolor="#C0C0C0"] ;
15 -> 17 ;
20 [label="Weather Normalized Site Electricity Intensity (kWh/ft²) <= 26.85\nfriedman_mse = 1.0\nsamples = 6441\nvalue = 0.001", fillcolor="#e5813961"] ;
0 -> 20 [labeldistance=2.5, labelangle=-45, headlabel="False"] ;
21 [label="Property Id <= 4954516.0\nfriedman_mse = 1.0\nsamples = 6389\nvalue = 0.004", fillcolor="#e5813961"] ;
20 -> 21 ;
22 [label="Property Id <= 4926014.5\nfriedman_mse = 1.0\nsamples = 5743\nvalue = -0.005", fillcolor="#e5813961"] ;
21 -> 22 ;
23 [label="(...)", fillcolor="#C0C0C0"] ;
22 -> 23 ;
26 [label="(...)", fillcolor="#C0C0C0"] ;
22 -> 26 ;
29 [label="Property Id <= 5043134.0\nfriedman_mse = 0.994\nsamples = 646\nvalue = 0.077", fillcolor="#e5813961"] ;
21 -> 29 ;
30 [label="(...)", fillcolor="#C0C0C0"] ;
29 -> 30 ;
33 [label="(...)", fillcolor="#C0C0C0"] ;
29 -> 33 ;
36 [label="Order <= 7519.0\nfriedman_mse = 0.928\nsamples = 52\nvalue = -0.269", fillcolor="#e581395f"] ;
20 -> 36 ;
37 [label="log_Direct GHG Emissions (Metric Tons CO2e) <= 4.236\nfriedman_mse = 0.699\nsamples = 31\nvalue = -0.548", fillcolor="#e581395c"] ;
36 -> 37 ;
38 [label="(...)", fillcolor="#C0C0C0"] ;
37 -> 38 ;
39 [label="(...)", fillcolor="#C0C0C0"] ;
37 -> 39 ;
42 [label="Property Id <= 3527109.0\nfriedman_mse = 0.98\nsamples = 21\nvalue = 0.143", fillcolor="#e5813962"] ;
36 -> 42 ;
43 [label="(...)", fillcolor="#C0C0C0"] ;
42 -> 43 ;
44 [label="(...)", fillcolor="#C0C0C0"] ;
42 -> 44 ;
}