digraph Tree {
node [shape=box, style="filled, rounded", color="black", fontname=helvetica] ;
edge [fontname=helvetica] ;
0 [label="Site EUI (kBtu/ft²) <= 88.45\nmse = 866.6\nsamples = 6622\nvalue = 60.477", fillcolor="#e581398f"] ;
1 [label="Site EUI (kBtu/ft²) <= 68.95\nmse = 489.199\nsamples = 4326\nvalue = 74.265", fillcolor="#e58139b8"] ;
0 -> 1 [labeldistance=2.5, labelangle=45, headlabel="True"] ;
2 [label="Weather Normalized Site Electricity Intensity (kWh/ft²) <= 5.75\nmse = 352.436\nsamples = 2261\nvalue = 83.966", fillcolor="#e58139d5"] ;
1 -> 2 ;
3 [label="Site EUI (kBtu/ft²) <= 51.75\nmse = 155.966\nsamples = 1505\nvalue = 89.848", fillcolor="#e58139e6"] ;
2 -> 3 ;
4 [label="Largest Property Use Type_Non-Refrigerated Warehouse <= 0.5\nmse = 100.488\nsamples = 658\nvalue = 95.661", fillcolor="#e58139f7"] ;
3 -> 4 ;
5 [label="Site EUI (kBtu/ft²) <= 44.35\nmse = 49.75\nsamples = 595\nvalue = 97.262", fillcolor="#e58139fc"] ;
4 -> 5 ;
6 [label="mse = 42.73\nsamples = 462\nvalue = 98.271", fillcolor="#e58139ff"] ;
5 -> 6 ;
7 [label="mse = 58.333\nsamples = 133\nvalue = 93.759", fillcolor="#e58139f2"] ;
5 -> 7 ;
8 [label="Site EUI (kBtu/ft²) <= 26.35\nmse = 326.82\nsamples = 63\nvalue = 80.54", fillcolor="#e58139ca"] ;
4 -> 8 ;
9 [label="mse = 97.171\nsamples = 35\nvalue = 90.971", fillcolor="#e58139e9"] ;
8 -> 9 ;
10 [label="mse = 307.821\nsamples = 28\nvalue = 67.5", fillcolor="#e58139a4"] ;
8 -> 10 ;
11 [label="Weather Normalized Site Electricity Intensity (kWh/ft²) <= 3.75\nmse = 152.415\nsamples = 847\nvalue = 85.332", fillcolor="#e58139d9"] ;
3 -> 11 ;
12 [label="Weather Normalized Site Electricity Intensity (kWh/ft²) <= 2.45\nmse = 63.214\nsamples = 429\nvalue = 89.739", fillcolor="#e58139e6"] ;
11 -> 12 ;
13 [label="mse = 34.172\nsamples = 77\nvalue = 95.494", fillcolor="#e58139f7"] ;
12 -> 13 ;
14 [label="mse = 60.738\nsamples = 352\nvalue = 88.48", fillcolor="#e58139e2"] ;
12 -> 14 ;
15 [label="log_Water Intensity (All Water Sources) (gal/ft²) <= 2.571\nmse = 203.571\nsamples = 418\nvalue = 80.809", fillcolor="#e58139cb"] ;
11 -> 15 ;
16 [label="mse = 383.076\nsamples = 12\nvalue = 62.917", fillcolor="#e5813996"] ;
15 -> 16 ;
17 [label="mse = 188.524\nsamples = 406\nvalue = 81.337", fillcolor="#e58139cd"] ;
15 -> 17 ;
18 [label="Site EUI (kBtu/ft²) <= 46.75\nmse = 537.545\nsamples = 756\nvalue = 72.255", fillcolor="#e58139b2"] ;
2 -> 18 ;
19 [label="Weather Normalized Site Electricity Intensity (kWh/ft²) <= 11.35\nmse = 387.259\nsamples = 220\nvalue = 83.118", fillcolor="#e58139d2"] ;
18 -> 19 ;
20 [label="log_Water Intensity (All Water Sources) (gal/ft²) <= 2.011\nmse = 312.385\nsamples = 191\nvalue = 86.534", fillcolor="#e58139dc"] ;
19 -> 20 ;
21 [label="mse = 1184.188\nsamples = 16\nvalue = 61.75", fillcolor="#e5813993"] ;
20 -> 21 ;
22 [label="mse = 171.383\nsamples = 175\nvalue = 88.8", fillcolor="#e58139e3"] ;
20 -> 22 ;
23 [label="Property Id <= 4162332.0\nmse = 297.408\nsamples = 29\nvalue = 60.621", fillcolor="#e581398f"] ;
19 -> 23 ;
24 [label="mse = 312.996\nsamples = 15\nvalue = 66.267", fillcolor="#e58139a0"] ;
23 -> 24 ;
25 [label="mse = 209.959\nsamples = 14\nvalue = 54.571", fillcolor="#e581397d"] ;
23 -> 25 ;
26 [label="Year Built <= 1960.5\nmse = 530.916\nsamples = 536\nvalue = 67.797", fillcolor="#e58139a5"] ;
18 -> 26 ;
27 [label="Order <= 3940.0\nmse = 416.72\nsamples = 311\nvalue = 74.849", fillcolor="#e58139ba"] ;
26 -> 27 ;
28 [label="mse = 335.579\nsamples = 225\nvalue = 78.871", fillcolor="#e58139c5"] ;
27 -> 28 ;
29 [label="mse = 475.941\nsamples = 86\nvalue = 64.326", fillcolor="#e581399a"] ;
27 -> 29 ;
30 [label="Property Id <= 2381894.0\nmse = 524.998\nsamples = 225\nvalue = 58.049", fillcolor="#e5813988"] ;
26 -> 30 ;
31 [label="mse = 48.864\nsamples = 13\nvalue = 82.538", fillcolor="#e58139d0"] ;
30 -> 31 ;
32 [label="mse = 515.163\nsamples = 212\nvalue = 56.547", fillcolor="#e5813983"] ;
30 -> 32 ;
33 [label="Weather Normalized Site Electricity Intensity (kWh/ft²) <= 5.25\nmse = 423.098\nsamples = 2065\nvalue = 63.644", fillcolor="#e5813998"] ;
1 -> 33 ;
34 [label="Site EUI (kBtu/ft²) <= 77.15\nmse = 201.469\nsamples = 1231\nvalue = 70.973", fillcolor="#e58139ae"] ;
33 -> 34 ;
35 [label="Weather Normalized Site Electricity Intensity (kWh/ft²) <= 2.05\nmse = 160.735\nsamples = 554\nvalue = 76.655", fillcolor="#e58139bf"] ;
34 -> 35 ;
36 [label="Property Id <= 3250154.5\nmse = 13.423\nsamples = 34\nvalue = 94.559", fillcolor="#e58139f4"] ;
35 -> 36 ;
37 [label="mse = 4.095\nsamples = 13\nvalue = 96.462", fillcolor="#e58139fa"] ;
36 -> 37 ;
38 [label="mse = 15.569\nsamples = 21\nvalue = 93.381", fillcolor="#e58139f0"] ;
36 -> 38 ;
39 [label="Weather Normalized Site Electricity Intensity (kWh/ft²) <= 3.75\nmse = 148.038\nsamples = 520\nvalue = 75.485", fillcolor="#e58139bb"] ;
35 -> 39 ;
40 [label="mse = 131.824\nsamples = 230\nvalue = 78.496", fillcolor="#e58139c4"] ;
39 -> 40 ;
41 [label="mse = 148.004\nsamples = 290\nvalue = 73.097", fillcolor="#e58139b4"] ;
39 -> 41 ;
42 [label="Weather Normalized Site Electricity Intensity (kWh/ft²) <= 1.95\nmse = 186.762\nsamples = 677\nvalue = 66.323", fillcolor="#e58139a0"] ;
34 -> 42 ;
43 [label="mse = 28.371\nsamples = 16\nvalue = 88.438", fillcolor="#e58139e2"] ;
42 -> 43 ;
44 [label="Site EUI (kBtu/ft²) <= 83.85\nmse = 178.473\nsamples = 661\nvalue = 65.788", fillcolor="#e581399f"] ;
42 -> 44 ;
45 [label="mse = 162.111\nsamples = 411\nvalue = 67.971", fillcolor="#e58139a5"] ;
44 -> 45 ;
46 [label="mse = 184.664\nsamples = 250\nvalue = 62.2", fillcolor="#e5813994"] ;
44 -> 46 ;
47 [label="log_Water Intensity (All Water Sources) (gal/ft²) <= 3.227\nmse = 553.888\nsamples = 834\nvalue = 52.825", fillcolor="#e5813978"] ;
33 -> 47 ;
48 [label="log_Direct GHG Emissions (Metric Tons CO2e) <= 5.454\nmse = 440.841\nsamples = 160\nvalue = 66.256", fillcolor="#e58139a0"] ;
47 -> 48 ;
49 [label="Site EUI (kBtu/ft²) <= 83.4\nmse = 569.175\nsamples = 83\nvalue = 58.133", fillcolor="#e5813988"] ;
48 -> 49 ;
50 [label="mse = 476.299\nsamples = 63\nvalue = 63.048", fillcolor="#e5813997"] ;
49 -> 50 ;
51 [label="mse = 545.928\nsamples = 20\nvalue = 42.65", fillcolor="#e581395a"] ;
49 -> 51 ;
52 [label="Year Built <= 1940.5\nmse = 154.688\nsamples = 77\nvalue = 75.013", fillcolor="#e58139ba"] ;
48 -> 52 ;
53 [label="mse = 63.52\nsamples = 46\nvalue = 78.043", fillcolor="#e58139c3"] ;
52 -> 53 ;
54 [label="mse = 256.121\nsamples = 31\nvalue = 70.516", fillcolor="#e58139ad"] ;
52 -> 54 ;
55 [label="Weather Normalized Site Electricity Intensity (kWh/ft²) <= 6.05\nmse = 527.733\nsamples = 674\nvalue = 49.636", fillcolor="#e581396f"] ;
47 -> 55 ;
56 [label="Site EUI (kBtu/ft²) <= 82.9\nmse = 266.11\nsamples = 184\nvalue = 57.707", fillcolor="#e5813987"] ;
55 -> 56 ;
57 [label="mse = 230.874\nsamples = 124\nvalue = 61.694", fillcolor="#e5813993"] ;
56 -> 57 ;
58 [label="mse = 238.182\nsamples = 60\nvalue = 49.467", fillcolor="#e581396e"] ;
56 -> 58 ;
59 [label="Year Built <= 1995.0\nmse = 592.337\nsamples = 490\nvalue = 46.606", fillcolor="#e5813966"] ;
55 -> 59 ;
60 [label="mse = 589.526\nsamples = 367\nvalue = 49.984", fillcolor="#e5813970"] ;
59 -> 60 ;
61 [label="mse = 465.127\nsamples = 123\nvalue = 36.528", fillcolor="#e5813948"] ;
59 -> 61 ;
62 [label="Site EUI (kBtu/ft²) <= 109.55\nmse = 544.662\nsamples = 2296\nvalue = 34.5", fillcolor="#e5813942"] ;
0 -> 62 [labeldistance=2.5, labelangle=-45, headlabel="False"] ;
63 [label="Weather Normalized Site Electricity Intensity (kWh/ft²) <= 5.25\nmse = 452.214\nsamples = 1362\nvalue = 42.65", fillcolor="#e581395a"] ;
62 -> 63 ;
64 [label="Site EUI (kBtu/ft²) <= 95.25\nmse = 275.319\nsamples = 663\nvalue = 49.931", fillcolor="#e5813970"] ;
63 -> 64 ;
65 [label="Weather Normalized Site Electricity Intensity (kWh/ft²) <= 3.25\nmse = 229.575\nsamples = 298\nvalue = 56.564", fillcolor="#e5813983"] ;
64 -> 65 ;
66 [label="Weather Normalized Site Electricity Intensity (kWh/ft²) <= 2.6\nmse = 159.058\nsamples = 38\nvalue = 69.684", fillcolor="#e58139aa"] ;
65 -> 66 ;
67 [label="mse = 68.429\nsamples = 14\nvalue = 79.0", fillcolor="#e58139c6"] ;
66 -> 67 ;
68 [label="mse = 131.771\nsamples = 24\nvalue = 64.25", fillcolor="#e581399a"] ;
66 -> 68 ;
69 [label="Site EUI (kBtu/ft²) <= 88.85\nmse = 211.044\nsamples = 260\nvalue = 54.646", fillcolor="#e581397e"] ;
65 -> 69 ;
70 [label="mse = 212.24\nsamples = 25\nvalue = 62.2", fillcolor="#e5813994"] ;
69 -> 70 ;
71 [label="mse = 204.201\nsamples = 235\nvalue = 53.843", fillcolor="#e581397b"] ;
69 -> 71 ;
72 [label="Property Id <= 4043452.0\nmse = 247.417\nsamples = 365\nvalue = 44.515", fillcolor="#e5813960"] ;
64 -> 72 ;
73 [label="Property Id <= 4039446.0\nmse = 212.641\nsamples = 232\nvalue = 47.03", fillcolor="#e5813967"] ;
72 -> 73 ;
74 [label="mse = 205.292\nsamples = 221\nvalue = 46.217", fillcolor="#e5813965"] ;
73 -> 74 ;
75 [label="mse = 80.231\nsamples = 11\nvalue = 63.364", fillcolor="#e5813997"] ;
73 -> 75 ;
76 [label="Weather Normalized Site Electricity Intensity (kWh/ft²) <= 3.65\nmse = 277.796\nsamples = 133\nvalue = 40.128", fillcolor="#e5813953"] ;
72 -> 76 ;
77 [label="mse = 294.24\nsamples = 30\nvalue = 48.4", fillcolor="#e581396b"] ;
76 -> 77 ;
78 [label="mse = 247.27\nsamples = 103\nvalue = 37.718", fillcolor="#e581394b"] ;
76 -> 78 ;
79 [label="Year Built <= 1982.5\nmse = 522.027\nsamples = 699\nvalue = 35.744", fillcolor="#e5813946"] ;
63 -> 79 ;
80 [label="Order <= 4031.0\nmse = 497.159\nsamples = 520\nvalue = 39.119", fillcolor="#e5813950"] ;
79 -> 80 ;
81 [label="DOF Gross Floor Area <= 212145.5\nmse = 556.536\nsamples = 215\nvalue = 47.674", fillcolor="#e5813969"] ;
80 -> 81 ;
82 [label="mse = 539.389\nsamples = 142\nvalue = 41.838", fillcolor="#e5813958"] ;
81 -> 82 ;
83 [label="mse = 394.739\nsamples = 73\nvalue = 59.027", fillcolor="#e581398b"] ;
81 -> 83 ;
84 [label="Weather Normalized Site Electricity Intensity (kWh/ft²) <= 6.15\nmse = 367.34\nsamples = 305\nvalue = 33.089", fillcolor="#e581393e"] ;
80 -> 84 ;
85 [label="mse = 274.203\nsamples = 129\nvalue = 39.372", fillcolor="#e5813950"] ;
84 -> 85 ;
86 [label="mse = 385.454\nsamples = 176\nvalue = 28.483", fillcolor="#e5813930"] ;
84 -> 86 ;
87 [label="Property Id <= 2650440.0\nmse = 465.03\nsamples = 179\nvalue = 25.939", fillcolor="#e5813928"] ;
79 -> 87 ;
88 [label="mse = 544.245\nsamples = 14\nvalue = 48.571", fillcolor="#e581396c"] ;
87 -> 88 ;
89 [label="Weather Normalized Site Electricity Intensity (kWh/ft²) <= 8.15\nmse = 411.157\nsamples = 165\nvalue = 24.018", fillcolor="#e5813923"] ;
87 -> 89 ;
90 [label="mse = 306.966\nsamples = 53\nvalue = 32.528", fillcolor="#e581393c"] ;
89 -> 90 ;
91 [label="mse = 409.973\nsamples = 112\nvalue = 19.991", fillcolor="#e5813917"] ;
89 -> 91 ;
92 [label="Property Id <= 2269076.0\nmse = 441.355\nsamples = 934\nvalue = 22.615", fillcolor="#e581391f"] ;
62 -> 92 ;
93 [label="Property Id <= 1439114.5\nmse = 447.868\nsamples = 23\nvalue = 63.043", fillcolor="#e5813997"] ;
92 -> 93 ;
94 [label="mse = 131.339\nsamples = 11\nvalue = 75.455", fillcolor="#e58139bb"] ;
93 -> 94 ;
95 [label="mse = 467.389\nsamples = 12\nvalue = 51.667", fillcolor="#e5813975"] ;
93 -> 95 ;
96 [label="Site EUI (kBtu/ft²) <= 138.15\nmse = 398.882\nsamples = 911\nvalue = 21.594", fillcolor="#e581391c"] ;
92 -> 96 ;
97 [label="DOF Gross Floor Area <= 665362.0\nmse = 361.128\nsamples = 600\nvalue = 25.25", fillcolor="#e5813926"] ;
96 -> 97 ;
98 [label="Year Built <= 1982.0\nmse = 333.117\nsamples = 578\nvalue = 24.429", fillcolor="#e5813924"] ;
97 -> 98 ;
99 [label="mse = 330.47\nsamples = 501\nvalue = 25.868", fillcolor="#e5813928"] ;
98 -> 99 ;
100 [label="mse = 249.178\nsamples = 77\nvalue = 15.065", fillcolor="#e5813908"] ;
98 -> 100 ;
101 [label="log_Water Intensity (All Water Sources) (gal/ft²) <= 3.823\nmse = 614.149\nsamples = 22\nvalue = 46.818", fillcolor="#e5813966"] ;
97 -> 101 ;
102 [label="mse = 171.289\nsamples = 11\nvalue = 63.727", fillcolor="#e5813999"] ;
101 -> 102 ;
103 [label="mse = 485.174\nsamples = 11\nvalue = 29.909", fillcolor="#e5813934"] ;
101 -> 103 ;
104 [label="log_Direct GHG Emissions (Metric Tons CO2e) <= 5.39\nmse = 396.178\nsamples = 311\nvalue = 14.54", fillcolor="#e5813907"] ;
96 -> 104 ;
105 [label="Order <= 5271.0\nmse = 1232.706\nsamples = 26\nvalue = 28.577", fillcolor="#e5813930"] ;
104 -> 105 ;
106 [label="mse = 545.746\nsamples = 16\nvalue = 13.438", fillcolor="#e5813903"] ;
105 -> 106 ;
107 [label="mse = 1378.36\nsamples = 10\nvalue = 52.8", fillcolor="#e5813978"] ;
105 -> 107 ;
108 [label="Weather Normalized Site Electricity Intensity (kWh/ft²) <= 2.55\nmse = 300.248\nsamples = 285\nvalue = 13.26", fillcolor="#e5813903"] ;
104 -> 108 ;
109 [label="mse = 520.71\nsamples = 13\nvalue = 33.538", fillcolor="#e581393f"] ;
108 -> 109 ;
110 [label="mse = 269.118\nsamples = 272\nvalue = 12.29", fillcolor="#e5813900"] ;
108 -> 110 ;
}